<?xml version="1.0"?>
<opencv_storage>
<haarcascade type_id="opencv-haar-classifier">
  <size>
    20 20</size>
  <stages>
    <_>
      <!-- stage 0 -->
      <trees>
        <_>
          <!-- tree 0 -->
          <_>
            <!-- root node -->
            <feature>
              <rects>
                <_>
                  4 8 2 6 -1.</_>
                <_>
                  4 8 1 3 2.</_>
                <_>
                  5 11 1 3 2.</_></rects>
              <tilted>0</tilted></feature>
            <threshold>-1.1808910407125950e-02</threshold>
            <left_node>1</left_node>
            <right_val>-1.0000009536743164e+00</right_val></_>
          <_>
            <!-- node 1 -->
            <feature>
              <rects>
                <_>
                  0 0 2 1 -1.</_>
                <_>
                  1 0 1 1 2.</_></rects>
              <tilted>0</tilted></feature>
            <threshold>3.6873940844088793e-03</threshold>
            <left_val>1.</left_val>
            <right_val>-1.</right_val></_></_></trees>
      <stage_threshold>1.</stage_threshold>
      <parent>-1</parent>
      <next>-1</next></_></stages></haarcascade>
</opencv_storage>
